FANN_FLO_2.1
num_layers=3
learning_rate=0.700000
connection_rate=1.000000
network_type=0
learning_momentum=0.000000
training_algorithm=2
train_error_function=1
train_stop_function=0
cascade_output_change_fraction=0.010000
quickprop_decay=-0.000100
quickprop_mu=1.750000
rprop_increase_factor=1.200000
rprop_decrease_factor=0.500000
rprop_delta_min=0.000000
rprop_delta_max=50.000000
rprop_delta_zero=0.100000
cascade_output_stagnation_epochs=12
cascade_candidate_change_fraction=0.010000
cascade_candidate_stagnation_epochs=12
cascade_max_out_epochs=150
cascade_min_out_epochs=50
cascade_max_cand_epochs=150
cascade_min_cand_epochs=50
cascade_num_candidate_groups=2
bit_fail_limit=3.49999994039535522461e-01
cascade_candidate_limit=1.00000000000000000000e+03
cascade_weight_multiplier=4.00000005960464477539e-01
cascade_activation_functions_count=10
cascade_activation_functions=3 5 7 8 10 11 14 15 16 17 
cascade_activation_steepnesses_count=4
cascade_activation_steepnesses=2.50000000000000000000e-01 5.00000000000000000000e-01 7.50000000000000000000e-01 1.00000000000000000000e+00 
layer_sizes=4 10 5 
scale_included=0
neurons (num_inputs, activation_function, activation_steepness)=(0, 0, 0.00000000000000000000e+00) (0, 0, 0.00000000000000000000e+00) (0, 0, 0.00000000000000000000e+00) (0, 0, 0.00000000000000000000e+00) (4, 5, 5.00000000000000000000e-01) (4, 5, 5.00000000000000000000e-01) (4, 5, 5.00000000000000000000e-01) (4, 5, 5.00000000000000000000e-01) (4, 5, 5.00000000000000000000e-01) (4, 5, 5.00000000000000000000e-01) (4, 5, 5.00000000000000000000e-01) (4, 5, 5.00000000000000000000e-01) (4, 5, 5.00000000000000000000e-01) (0, 5, 0.00000000000000000000e+00) (10, 5, 5.00000000000000000000e-01) (10, 5, 5.00000000000000000000e-01) (10, 5, 5.00000000000000000000e-01) (10, 5, 5.00000000000000000000e-01) (0, 5, 0.00000000000000000000e+00) 
connections (connected_to_neuron, weight)=(0, 1.07996129989624023438e+01) (1, 1.22171476483345031738e-01) (2, -7.33905553817749023438e+00) (3, 1.29657888412475585938e+00) (0, -7.42082023620605468750e+00) (1, 5.03399467468261718750e+00) (2, -6.06034517288208007812e-01) (3, -1.33801788091659545898e-01) (0, 2.18382282257080078125e+01) (1, -1.71216602325439453125e+01) (2, -6.74582443237304687500e+01) (3, 2.42547631263732910156e+00) (0, -8.24823837280273437500e+01) (1, -1.07887449264526367188e+01) (2, 2.19573059082031250000e+02) (3, 7.59763062000274658203e-01) (0, -2.32295818328857421875e+01) (1, 3.76456451416015625000e+00) (2, -9.13210601806640625000e+01) (3, -9.53399464488029479980e-02) (0, -2.50532394409179687500e+02) (1, -2.77132911682128906250e+01) (2, -8.94043502807617187500e+01) (3, -4.71183657646179199219e-01) (0, 3.36779832839965820312e+00) (1, 1.18328218460083007812e+01) (2, -1.89028072357177734375e+01) (3, -6.90489113330841064453e-01) (0, 1.11904191970825195312e+01) (1, 3.95048713684082031250e+00) (2, -1.45346193313598632812e+01) (3, -4.04775649309158325195e-01) (0, -3.34245635986328125000e+02) (1, 2.27315704345703125000e+02) (2, 2.30809768676757812500e+02) (3, 3.57421302795410156250e+00) (4, -4.14206909179687500000e+02) (5, 1.71712081909179687500e+02) (6, -4.92296752929687500000e+01) (7, 2.98036527633666992188e+00) (8, 9.69355316162109375000e+01) (9, 2.83606982231140136719e+00) (10, 9.27908248901367187500e+01) (11, -2.77816247940063476562e+00) (12, 3.21354889869689941406e+00) (13, -3.12405228614807128906e+00) (4, -3.35135310888290405273e-01) (5, -4.20680389404296875000e+01) (6, 1.68763275146484375000e+01) (7, 3.27799272537231445312e+00) (8, -3.16103229522705078125e+01) (9, 4.02618637084960937500e+01) (10, 3.10986590385437011719e+00) (11, 2.73655986785888671875e+01) (12, 2.32636833190917968750e+01) (13, -2.08639640808105468750e+01) (4, 3.12738895416259765625e+01) (5, -1.16858192443847656250e+02) (6, -6.81169281005859375000e+01) (7, -7.87819862365722656250e-01) (8, 2.13770141601562500000e+01) (9, 4.62460577487945556641e-01) (10, -6.78146133422851562500e+01) (11, 7.58771896362304687500e+01) (12, 1.97872085571289062500e+01) (13, -1.12550914287567138672e+00) (4, 1.58569291234016418457e-01) (5, 3.30547256469726562500e+01) (6, 4.12372970581054687500e+01) (7, 1.53863277435302734375e+01) (8, 1.65993595123291015625e+01) (9, -3.67974166870117187500e+01) (10, 5.69315414428710937500e+01) (11, 3.84196243286132812500e+01) (12, -2.57406177520751953125e+01) (13, -5.91030240058898925781e-01) 
