FANN_FLO_2.1
num_layers=3
learning_rate=0.700000
connection_rate=1.000000
network_type=0
learning_momentum=0.000000
training_algorithm=2
train_error_function=1
train_stop_function=0
cascade_output_change_fraction=0.010000
quickprop_decay=-0.000100
quickprop_mu=1.750000
rprop_increase_factor=1.200000
rprop_decrease_factor=0.500000
rprop_delta_min=0.000000
rprop_delta_max=50.000000
rprop_delta_zero=0.100000
cascade_output_stagnation_epochs=12
cascade_candidate_change_fraction=0.010000
cascade_candidate_stagnation_epochs=12
cascade_max_out_epochs=150
cascade_min_out_epochs=50
cascade_max_cand_epochs=150
cascade_min_cand_epochs=50
cascade_num_candidate_groups=2
bit_fail_limit=3.49999994039535522461e-01
cascade_candidate_limit=1.00000000000000000000e+03
cascade_weight_multiplier=4.00000005960464477539e-01
cascade_activation_functions_count=10
cascade_activation_functions=3 5 7 8 10 11 14 15 16 17 
cascade_activation_steepnesses_count=4
cascade_activation_steepnesses=2.50000000000000000000e-01 5.00000000000000000000e-01 7.50000000000000000000e-01 1.00000000000000000000e+00 
layer_sizes=2 10 3 
scale_included=0
neurons (num_inputs, activation_function, activation_steepness)=(0, 0, 0.00000000000000000000e+00) (0, 0, 0.00000000000000000000e+00) (2, 5, 5.00000000000000000000e-01) (2, 5, 5.00000000000000000000e-01) (2, 5, 5.00000000000000000000e-01) (2, 5, 5.00000000000000000000e-01) (2, 5, 5.00000000000000000000e-01) (2, 5, 5.00000000000000000000e-01) (2, 5, 5.00000000000000000000e-01) (2, 5, 5.00000000000000000000e-01) (2, 5, 5.00000000000000000000e-01) (0, 5, 0.00000000000000000000e+00) (10, 5, 5.00000000000000000000e-01) (10, 5, 5.00000000000000000000e-01) (0, 5, 0.00000000000000000000e+00) 
connections (connected_to_neuron, weight)=(0, -2.73803210258483886719e+00) (1, -7.42534160614013671875e-01) (0, 1.89888998866081237793e-02) (1, -2.59044736623764038086e-01) (0, 7.16538476943969726562e+00) (1, 3.90547305345535278320e-01) (0, 2.81589341163635253906e+00) (1, 4.42784935235977172852e-01) (0, 3.93742352724075317383e-01) (1, 3.24952155351638793945e-02) (0, 7.14397621154785156250e+00) (1, 1.97170257568359375000e-01) (0, 2.82556462287902832031e+00) (1, 6.63017272949218750000e-01) (0, 2.81964254379272460938e+00) (1, 3.36115330457687377930e-01) (0, -7.11596298217773437500e+00) (1, 8.29461216926574707031e-03) (2, 7.33171582221984863281e-01) (3, 1.81891307234764099121e-01) (4, -7.17364883422851562500e+00) (5, -1.17044436931610107422e+00) (6, 4.70955669879913330078e-03) (7, -7.10351419448852539062e+00) (8, -1.28427875041961669922e+00) (9, -1.24378800392150878906e+00) (10, 7.19594621658325195312e+00) (11, -3.70724163949489593506e-02) (2, -4.33277279138565063477e-01) (3, 1.99940279126167297363e-02) (4, 7.07699823379516601562e+00) (5, 1.26515972614288330078e+00) (6, 1.84870272874832153320e-01) (7, 7.11931467056274414062e+00) (8, 1.19632756710052490234e+00) (9, 1.23383247852325439453e+00) (10, -7.08965349197387695312e+00) (11, 9.71525534987449645996e-02) 
