FANN_FLO_2.1
num_layers=3
learning_rate=0.700000
connection_rate=1.000000
network_type=0
learning_momentum=0.000000
training_algorithm=2
train_error_function=1
train_stop_function=0
cascade_output_change_fraction=0.010000
quickprop_decay=-0.000100
quickprop_mu=1.750000
rprop_increase_factor=1.200000
rprop_decrease_factor=0.500000
rprop_delta_min=0.000000
rprop_delta_max=50.000000
rprop_delta_zero=0.100000
cascade_output_stagnation_epochs=12
cascade_candidate_change_fraction=0.010000
cascade_candidate_stagnation_epochs=12
cascade_max_out_epochs=150
cascade_min_out_epochs=50
cascade_max_cand_epochs=150
cascade_min_cand_epochs=50
cascade_num_candidate_groups=2
bit_fail_limit=3.49999994039535522461e-01
cascade_candidate_limit=1.00000000000000000000e+03
cascade_weight_multiplier=4.00000005960464477539e-01
cascade_activation_functions_count=10
cascade_activation_functions=3 5 7 8 10 11 14 15 16 17 
cascade_activation_steepnesses_count=4
cascade_activation_steepnesses=2.50000000000000000000e-01 5.00000000000000000000e-01 7.50000000000000000000e-01 1.00000000000000000000e+00 
layer_sizes=4 10 5 
scale_included=0
neurons (num_inputs, activation_function, activation_steepness)=(0, 0, 0.00000000000000000000e+00) (0, 0, 0.00000000000000000000e+00) (0, 0, 0.00000000000000000000e+00) (0, 0, 0.00000000000000000000e+00) (4, 5, 5.00000000000000000000e-01) (4, 5, 5.00000000000000000000e-01) (4, 5, 5.00000000000000000000e-01) (4, 5, 5.00000000000000000000e-01) (4, 5, 5.00000000000000000000e-01) (4, 5, 5.00000000000000000000e-01) (4, 5, 5.00000000000000000000e-01) (4, 5, 5.00000000000000000000e-01) (4, 5, 5.00000000000000000000e-01) (0, 5, 0.00000000000000000000e+00) (10, 5, 5.00000000000000000000e-01) (10, 5, 5.00000000000000000000e-01) (10, 5, 5.00000000000000000000e-01) (10, 5, 5.00000000000000000000e-01) (0, 5, 0.00000000000000000000e+00) 
connections (connected_to_neuron, weight)=(0, -1.49999987792968750000e+03) (1, -1.46811254882812500000e+03) (2, 1.50000000000000000000e+03) (3, -1.50000000000000000000e+03) (0, -1.49999987792968750000e+03) (1, -1.46815100097656250000e+03) (2, 1.50000000000000000000e+03) (3, -1.50000000000000000000e+03) (0, 1.77708923816680908203e+00) (1, -3.31412267684936523438e+00) (2, 4.01056885719299316406e-01) (3, 1.38109934329986572266e+00) (0, -9.02091205120086669922e-01) (1, -2.96589374542236328125e-01) (2, 2.31637334823608398438e+00) (3, 1.80527150630950927734e+00) (0, 4.14775037765502929688e+00) (1, 2.46468782424926757812e-02) (2, 1.90804016590118408203e+00) (3, 2.14835071563720703125e+00) (0, 1.22094190120697021484e+00) (1, 8.05130660533905029297e-01) (2, 1.00144720077514648438e+00) (3, 9.57435548305511474609e-01) (0, -3.68080568313598632812e+00) (1, -7.52033853530883789062e+00) (2, 6.80104112625122070312e+00) (3, 5.63656520843505859375e+00) (0, 1.10147202014923095703e+00) (1, -9.58292126655578613281e-01) (2, 9.80484127998352050781e-01) (3, 1.27520489692687988281e+00) (0, 2.06435799598693847656e+00) (1, -2.53966274261474609375e+01) (2, 1.59627485275268554688e+00) (3, 1.24828398227691650391e+00) (4, 1.50000000000000000000e+03) (5, 1.50000000000000000000e+03) (6, 1.36013696289062500000e+03) (7, 1.49971191406250000000e+03) (8, 2.77704589843750000000e+02) (9, 1.35993225097656250000e+03) (10, 1.50000000000000000000e+03) (11, 1.36011657714843750000e+03) (12, 1.50000000000000000000e+03) (13, 1.45978320312500000000e+03) (4, 6.98993349075317382812e+00) (5, 7.09226179122924804688e+00) (6, -1.12046658992767333984e+00) (7, 2.63263946533203125000e+02) (8, -3.50775265693664550781e+00) (9, -4.04575347900390625000e+00) (10, -1.10590530395507812500e+02) (11, -1.39290022850036621094e+00) (12, 6.57937383651733398438e+00) (13, -2.77787995338439941406e+00) (4, 7.61952257156372070312e+00) (5, 8.00872898101806640625e+00) (6, -3.27635765075683593750e+01) (7, 1.32753768920898437500e+02) (8, -1.17830038070678710938e+01) (9, -2.64351034164428710938e+00) (10, -1.23378273010253906250e+02) (11, -2.43616056442260742188e+00) (12, 1.08855485916137695312e+01) (13, -6.15102720260620117188e+00) (4, 4.06291320800781250000e+02) (5, 4.06483123779296875000e+02) (6, 6.79493789672851562500e+01) (7, -9.53090881347656250000e+02) (8, -3.23011688232421875000e+02) (9, 6.96815795898437500000e+01) (10, 3.01858863830566406250e+01) (11, 6.76030120849609375000e+01) (12, 1.15954389572143554688e+01) (13, 6.60915039062500000000e+02) 
