FANN_FLO_2.1
num_layers=3
learning_rate=0.700000
connection_rate=1.000000
network_type=0
learning_momentum=0.000000
training_algorithm=2
train_error_function=1
train_stop_function=0
cascade_output_change_fraction=0.010000
quickprop_decay=-0.000100
quickprop_mu=1.750000
rprop_increase_factor=1.200000
rprop_decrease_factor=0.500000
rprop_delta_min=0.000000
rprop_delta_max=50.000000
rprop_delta_zero=0.100000
cascade_output_stagnation_epochs=12
cascade_candidate_change_fraction=0.010000
cascade_candidate_stagnation_epochs=12
cascade_max_out_epochs=150
cascade_min_out_epochs=50
cascade_max_cand_epochs=150
cascade_min_cand_epochs=50
cascade_num_candidate_groups=2
bit_fail_limit=3.49999994039535522461e-01
cascade_candidate_limit=1.00000000000000000000e+03
cascade_weight_multiplier=4.00000005960464477539e-01
cascade_activation_functions_count=10
cascade_activation_functions=3 5 7 8 10 11 14 15 16 17 
cascade_activation_steepnesses_count=4
cascade_activation_steepnesses=2.50000000000000000000e-01 5.00000000000000000000e-01 7.50000000000000000000e-01 1.00000000000000000000e+00 
layer_sizes=4 10 2 
scale_included=0
neurons (num_inputs, activation_function, activation_steepness)=(0, 0, 0.00000000000000000000e+00) (0, 0, 0.00000000000000000000e+00) (0, 0, 0.00000000000000000000e+00) (0, 0, 0.00000000000000000000e+00) (4, 5, 5.00000000000000000000e-01) (4, 5, 5.00000000000000000000e-01) (4, 5, 5.00000000000000000000e-01) (4, 5, 5.00000000000000000000e-01) (4, 5, 5.00000000000000000000e-01) (4, 5, 5.00000000000000000000e-01) (4, 5, 5.00000000000000000000e-01) (4, 5, 5.00000000000000000000e-01) (4, 5, 5.00000000000000000000e-01) (0, 5, 0.00000000000000000000e+00) (10, 5, 5.00000000000000000000e-01) (0, 5, 0.00000000000000000000e+00) 
connections (connected_to_neuron, weight)=(0, 1.08195905685424804688e+01) (1, 7.25959157943725585938e+00) (2, 8.85651588439941406250e+00) (3, 1.75304189324378967285e-01) (0, -8.24824035167694091797e-01) (1, -1.97857379913330078125e+00) (2, -1.65562140941619873047e+00) (3, 3.79403293132781982422e-01) (0, -6.61552131175994873047e-01) (1, -1.69900226593017578125e+00) (2, -1.29351603984832763672e+00) (3, 1.00660121440887451172e+00) (0, -6.69064223766326904297e-01) (1, -1.61416673660278320312e+00) (2, -1.39094173908233642578e+00) (3, 1.10529041290283203125e+00) (0, -5.81018149852752685547e-01) (1, -1.59489202499389648438e+00) (2, -1.43473994731903076172e+00) (3, 1.01923704147338867188e+00) (0, -2.18214201927185058594e+00) (1, -4.78005695343017578125e+00) (2, -4.04370594024658203125e+00) (3, 2.74729490280151367188e-01) (0, -2.09604239463806152344e+00) (1, -4.70867300033569335938e+00) (2, -3.97772812843322753906e+00) (3, 1.54195860028266906738e-01) (0, -6.41001403331756591797e-01) (1, -1.59550106525421142578e+00) (2, -1.28642642498016357422e+00) (3, 1.01941239833831787109e+00) (0, -2.07053065299987792969e+00) (1, -4.77701568603515625000e+00) (2, -3.94186902046203613281e+00) (3, 1.34357556700706481934e-01) (4, -3.33007693290710449219e+00) (5, 1.03803360462188720703e+00) (6, 4.61306810379028320312e-01) (7, 1.41499984264373779297e+00) (8, 5.18608450889587402344e-01) (9, 1.43930023193359375000e+02) (10, 1.31235685348510742188e+01) (11, 5.39321005344390869141e-01) (12, 1.03416194915771484375e+01) (13, 2.71737307310104370117e-01) 
