FANN_FLO_2.1
num_layers=3
learning_rate=0.700000
connection_rate=1.000000
network_type=0
learning_momentum=0.000000
training_algorithm=2
train_error_function=1
train_stop_function=0
cascade_output_change_fraction=0.010000
quickprop_decay=-0.000100
quickprop_mu=1.750000
rprop_increase_factor=1.200000
rprop_decrease_factor=0.500000
rprop_delta_min=0.000000
rprop_delta_max=50.000000
rprop_delta_zero=0.100000
cascade_output_stagnation_epochs=12
cascade_candidate_change_fraction=0.010000
cascade_candidate_stagnation_epochs=12
cascade_max_out_epochs=150
cascade_min_out_epochs=50
cascade_max_cand_epochs=150
cascade_min_cand_epochs=50
cascade_num_candidate_groups=2
bit_fail_limit=3.49999994039535522461e-01
cascade_candidate_limit=1.00000000000000000000e+03
cascade_weight_multiplier=4.00000005960464477539e-01
cascade_activation_functions_count=10
cascade_activation_functions=3 5 7 8 10 11 14 15 16 17 
cascade_activation_steepnesses_count=4
cascade_activation_steepnesses=2.50000000000000000000e-01 5.00000000000000000000e-01 7.50000000000000000000e-01 1.00000000000000000000e+00 
layer_sizes=3 10 5 
scale_included=0
neurons (num_inputs, activation_function, activation_steepness)=(0, 0, 0.00000000000000000000e+00) (0, 0, 0.00000000000000000000e+00) (0, 0, 0.00000000000000000000e+00) (3, 5, 5.00000000000000000000e-01) (3, 5, 5.00000000000000000000e-01) (3, 5, 5.00000000000000000000e-01) (3, 5, 5.00000000000000000000e-01) (3, 5, 5.00000000000000000000e-01) (3, 5, 5.00000000000000000000e-01) (3, 5, 5.00000000000000000000e-01) (3, 5, 5.00000000000000000000e-01) (3, 5, 5.00000000000000000000e-01) (0, 5, 0.00000000000000000000e+00) (10, 5, 5.00000000000000000000e-01) (10, 5, 5.00000000000000000000e-01) (10, 5, 5.00000000000000000000e-01) (10, 5, 5.00000000000000000000e-01) (0, 5, 0.00000000000000000000e+00) 
connections (connected_to_neuron, weight)=(0, -2.79188203811645507812e+00) (1, -1.69346404075622558594e+00) (2, -6.47884905338287353516e-01) (0, -1.06626674532890319824e-02) (1, -1.03971176147460937500e+01) (2, -4.54025179147720336914e-01) (0, -2.87940263748168945312e+00) (1, -2.22355794906616210938e+00) (2, -6.80565714836120605469e-01) (0, -6.24336481094360351562e-01) (1, 6.64387524127960205078e-01) (2, -2.52451658248901367188e-01) (0, -2.91940599679946899414e-01) (1, -1.31212863922119140625e+01) (2, -4.31175798177719116211e-01) (0, -6.85393393039703369141e-01) (1, -1.10227704048156738281e+00) (2, 9.89404737949371337891e-01) (0, 3.84581029415130615234e-01) (1, 2.31500670313835144043e-01) (2, 1.44056725502014160156e+00) (0, 6.76299142837524414062e+00) (1, 1.20278663635253906250e+02) (2, -1.77130913734436035156e+00) (0, -1.94643691182136535645e-01) (1, 2.04057712554931640625e+01) (2, -2.72687375545501708984e-01) (3, 1.50000000000000000000e+03) (4, 1.50000000000000000000e+03) (5, 1.50000000000000000000e+03) (6, 1.50000000000000000000e+03) (7, 1.50000000000000000000e+03) (8, 1.05899707031250000000e+03) (9, 1.05884326171875000000e+03) (10, 1.17241882324218750000e+02) (11, -1.89806823730468750000e+01) (12, 1.05894189453125000000e+03) (3, 3.45435827970504760742e-01) (4, 1.28401982784271240234e+00) (5, 7.14731335639953613281e-01) (6, -1.67613296508789062500e+01) (7, 1.43560445308685302734e+00) (8, 1.45177319645881652832e-01) (9, 6.31424263119697570801e-02) (10, 3.26569900512695312500e+01) (11, -1.25111831665039062500e+02) (12, 1.65770530700683593750e-01) (3, 1.12563180923461914062e+01) (4, 1.53842306137084960938e+00) (5, 2.67894315719604492188e+00) (6, 4.82299270629882812500e+01) (7, 1.71615195274353027344e+00) (8, -1.26098358631134033203e+00) (9, -1.26962053775787353516e+00) (10, 3.07325782775878906250e+01) (11, -3.36519546508789062500e+01) (12, -1.41205120086669921875e+00) (3, 1.23555088043212890625e+01) (4, 1.19413626194000244141e+00) (5, 1.26630878448486328125e+00) (6, 3.60734466552734375000e+02) (7, 1.02816557884216308594e+00) (8, -5.16520500183105468750e+00) (9, -3.27945858240127563477e-01) (10, 1.07435007095336914062e+01) (11, 1.02558624267578125000e+02) (12, -2.25884556770324707031e+00) 
