FANN_FLO_2.1
num_layers=3
learning_rate=0.700000
connection_rate=1.000000
network_type=0
learning_momentum=0.000000
training_algorithm=2
train_error_function=1
train_stop_function=0
cascade_output_change_fraction=0.010000
quickprop_decay=-0.000100
quickprop_mu=1.750000
rprop_increase_factor=1.200000
rprop_decrease_factor=0.500000
rprop_delta_min=0.000000
rprop_delta_max=50.000000
rprop_delta_zero=0.100000
cascade_output_stagnation_epochs=12
cascade_candidate_change_fraction=0.010000
cascade_candidate_stagnation_epochs=12
cascade_max_out_epochs=150
cascade_min_out_epochs=50
cascade_max_cand_epochs=150
cascade_min_cand_epochs=50
cascade_num_candidate_groups=2
bit_fail_limit=3.49999994039535522461e-01
cascade_candidate_limit=1.00000000000000000000e+03
cascade_weight_multiplier=4.00000005960464477539e-01
cascade_activation_functions_count=10
cascade_activation_functions=3 5 7 8 10 11 14 15 16 17 
cascade_activation_steepnesses_count=4
cascade_activation_steepnesses=2.50000000000000000000e-01 5.00000000000000000000e-01 7.50000000000000000000e-01 1.00000000000000000000e+00 
layer_sizes=3 10 4 
scale_included=0
neurons (num_inputs, activation_function, activation_steepness)=(0, 0, 0.00000000000000000000e+00) (0, 0, 0.00000000000000000000e+00) (0, 0, 0.00000000000000000000e+00) (3, 5, 5.00000000000000000000e-01) (3, 5, 5.00000000000000000000e-01) (3, 5, 5.00000000000000000000e-01) (3, 5, 5.00000000000000000000e-01) (3, 5, 5.00000000000000000000e-01) (3, 5, 5.00000000000000000000e-01) (3, 5, 5.00000000000000000000e-01) (3, 5, 5.00000000000000000000e-01) (3, 5, 5.00000000000000000000e-01) (0, 5, 0.00000000000000000000e+00) (10, 5, 5.00000000000000000000e-01) (10, 5, 5.00000000000000000000e-01) (10, 5, 5.00000000000000000000e-01) (0, 5, 0.00000000000000000000e+00) 
connections (connected_to_neuron, weight)=(0, -7.98832893371582031250e+00) (1, -3.37138977050781250000e+02) (2, -2.42889761924743652344e+00) (0, 3.29070121049880981445e-01) (1, -1.07427155971527099609e+00) (2, 1.66904795169830322266e+00) (0, 1.32507429122924804688e+01) (1, 1.71336746215820312500e+01) (2, -2.79922509193420410156e+00) (0, 2.54985761642456054688e+00) (1, 1.00777349472045898438e+01) (2, -9.00126323103904724121e-02) (0, 3.31577926874160766602e-01) (1, 2.91619372367858886719e+00) (2, -2.88075923919677734375e-01) (0, -4.81116247177124023438e+00) (1, -5.55849909782409667969e-01) (2, 1.18013930320739746094e+00) (0, 5.20560741424560546875e-01) (1, -1.46777191162109375000e+01) (2, 9.66249704360961914062e-01) (0, -3.01696562767028808594e+00) (1, -2.09165573120117187500e+01) (2, 4.17351126670837402344e-02) (0, 6.66778743267059326172e-01) (1, 3.44419631958007812500e+01) (2, 1.86837613582611083984e-01) (3, 1.50000000000000000000e+03) (4, 8.41588378906250000000e+02) (5, 5.01289367675781250000e+02) (6, -7.21608581542968750000e+02) (7, 1.50000000000000000000e+03) (8, 1.50000000000000000000e+03) (9, 8.40417846679687500000e+02) (10, 1.50000000000000000000e+03) (11, 9.77276367187500000000e+02) (12, 8.44481567382812500000e+02) (3, 9.25123405456542968750e+00) (4, -5.55632412433624267578e-01) (5, 7.45023498535156250000e+01) (6, -1.77891559600830078125e+01) (7, -3.67776107788085937500e+01) (8, 1.58555877685546875000e+02) (9, -2.95927810668945312500e+00) (10, 1.16772973537445068359e+00) (11, -6.16811609268188476562e+00) (12, -1.47367513179779052734e+00) (3, 1.47049388885498046875e+01) (4, -1.54032068252563476562e+01) (5, 7.30737161636352539062e+00) (6, -6.37145936489105224609e-01) (7, -9.12534332275390625000e+01) (8, 3.20335266113281250000e+02) (9, -4.46711196899414062500e+01) (10, -1.25395605468750000000e+03) (11, -6.42158691406250000000e+02) (12, -3.22397277832031250000e+02) 
