FANN_FLO_2.1
num_layers=3
learning_rate=0.700000
connection_rate=1.000000
network_type=0
learning_momentum=0.000000
training_algorithm=2
train_error_function=1
train_stop_function=0
cascade_output_change_fraction=0.010000
quickprop_decay=-0.000100
quickprop_mu=1.750000
rprop_increase_factor=1.200000
rprop_decrease_factor=0.500000
rprop_delta_min=0.000000
rprop_delta_max=50.000000
rprop_delta_zero=0.100000
cascade_output_stagnation_epochs=12
cascade_candidate_change_fraction=0.010000
cascade_candidate_stagnation_epochs=12
cascade_max_out_epochs=150
cascade_min_out_epochs=50
cascade_max_cand_epochs=150
cascade_min_cand_epochs=50
cascade_num_candidate_groups=2
bit_fail_limit=3.49999994039535522461e-01
cascade_candidate_limit=1.00000000000000000000e+03
cascade_weight_multiplier=4.00000005960464477539e-01
cascade_activation_functions_count=10
cascade_activation_functions=3 5 7 8 10 11 14 15 16 17 
cascade_activation_steepnesses_count=4
cascade_activation_steepnesses=2.50000000000000000000e-01 5.00000000000000000000e-01 7.50000000000000000000e-01 1.00000000000000000000e+00 
layer_sizes=5 10 4 
scale_included=0
neurons (num_inputs, activation_function, activation_steepness)=(0, 0, 0.00000000000000000000e+00) (0, 0, 0.00000000000000000000e+00) (0, 0, 0.00000000000000000000e+00) (0, 0, 0.00000000000000000000e+00) (0, 0, 0.00000000000000000000e+00) (5, 5, 5.00000000000000000000e-01) (5, 5, 5.00000000000000000000e-01) (5, 5, 5.00000000000000000000e-01) (5, 5, 5.00000000000000000000e-01) (5, 5, 5.00000000000000000000e-01) (5, 5, 5.00000000000000000000e-01) (5, 5, 5.00000000000000000000e-01) (5, 5, 5.00000000000000000000e-01) (5, 5, 5.00000000000000000000e-01) (0, 5, 0.00000000000000000000e+00) (10, 5, 5.00000000000000000000e-01) (10, 5, 5.00000000000000000000e-01) (10, 5, 5.00000000000000000000e-01) (0, 5, 0.00000000000000000000e+00) 
connections (connected_to_neuron, weight)=(0, -1.93763577938079833984e+00) (1, -3.04697155952453613281e-01) (2, 1.03926551342010498047e+00) (3, -3.76841038465499877930e-01) (4, -2.07024931907653808594e+00) (0, 1.54024124145507812500e+00) (1, 1.64596061706542968750e+01) (2, -2.79445373535156250000e+02) (3, 7.45226573944091796875e+00) (4, -3.38723540306091308594e+00) (0, -2.83626174926757812500e+00) (1, -6.37271738052368164062e+00) (2, 3.97429473876953125000e+02) (3, -6.37933588027954101562e+00) (4, 1.17663550376892089844e+00) (0, 4.09828364849090576172e-01) (1, 8.18002521991729736328e-01) (2, -6.47815551757812500000e+01) (3, 7.46522724628448486328e-01) (4, -1.12613689899444580078e+00) (0, 4.13300812244415283203e-01) (1, 2.10941836237907409668e-01) (2, -3.26833076477050781250e+01) (3, 4.52693253755569458008e-02) (4, 4.56646131351590156555e-03) (0, 5.57780122756958007812e+00) (1, -3.31061750650405883789e-01) (2, 5.87740087509155273438e+00) (3, 7.62455415725708007812e+00) (4, 1.38741612434387207031e+00) (0, -9.99801063537597656250e+00) (1, -1.22942373156547546387e-01) (2, 1.80511856079101562500e+01) (3, -7.63519382476806640625e+00) (4, -2.58298516273498535156e-02) (0, -2.84363865852355957031e+00) (1, -6.48494195938110351562e+00) (2, 3.97432617187500000000e+02) (3, -6.29490518569946289062e+00) (4, 1.19357430934906005859e+00) (0, 1.00685191154479980469e+00) (1, 5.66632807254791259766e-01) (2, 4.55893993377685546875e-01) (3, 5.43032526969909667969e-01) (4, 4.24637699127197265625e+00) (5, 1.50000000000000000000e+03) (6, 1.28363378906250000000e+03) (7, 1.50000000000000000000e+03) (8, 1.50000000000000000000e+03) (9, 1.27099230957031250000e+03) (10, 7.21706054687500000000e+02) (11, 1.50000000000000000000e+03) (12, 1.50000000000000000000e+03) (13, 9.15846557617187500000e+02) (14, 1.19324890136718750000e+03) (5, 2.65843462944030761719e+00) (6, 1.05230913162231445312e+01) (7, -1.47988426685333251953e+00) (8, -2.91799907684326171875e+01) (9, -4.24663114547729492188e+00) (10, -4.88021659851074218750e+00) (11, 2.29957222938537597656e+00) (12, -1.45548295974731445312e+00) (13, -1.49267911911010742188e+00) (14, -1.49835038185119628906e+00) (5, 4.61178970336914062500e+01) (6, 7.70414581298828125000e+01) (7, 2.85233551025390625000e+02) (8, 1.50000000000000000000e+03) (9, 3.13603496551513671875e+01) (10, 7.80957275390625000000e+02) (11, 4.71786010742187500000e+02) (12, 2.85207031250000000000e+02) (13, 4.57495117187500000000e+01) (14, 4.58137207031250000000e+01) 
