FANN_FLO_2.1
num_layers=3
learning_rate=0.700000
connection_rate=1.000000
network_type=0
learning_momentum=0.000000
training_algorithm=2
train_error_function=1
train_stop_function=0
cascade_output_change_fraction=0.010000
quickprop_decay=-0.000100
quickprop_mu=1.750000
rprop_increase_factor=1.200000
rprop_decrease_factor=0.500000
rprop_delta_min=0.000000
rprop_delta_max=50.000000
rprop_delta_zero=0.100000
cascade_output_stagnation_epochs=12
cascade_candidate_change_fraction=0.010000
cascade_candidate_stagnation_epochs=12
cascade_max_out_epochs=150
cascade_min_out_epochs=50
cascade_max_cand_epochs=150
cascade_min_cand_epochs=50
cascade_num_candidate_groups=2
bit_fail_limit=3.49999994039535522461e-01
cascade_candidate_limit=1.00000000000000000000e+03
cascade_weight_multiplier=4.00000005960464477539e-01
cascade_activation_functions_count=10
cascade_activation_functions=3 5 7 8 10 11 14 15 16 17 
cascade_activation_steepnesses_count=4
cascade_activation_steepnesses=2.50000000000000000000e-01 5.00000000000000000000e-01 7.50000000000000000000e-01 1.00000000000000000000e+00 
layer_sizes=3 10 2 
scale_included=0
neurons (num_inputs, activation_function, activation_steepness)=(0, 0, 0.00000000000000000000e+00) (0, 0, 0.00000000000000000000e+00) (0, 0, 0.00000000000000000000e+00) (3, 5, 5.00000000000000000000e-01) (3, 5, 5.00000000000000000000e-01) (3, 5, 5.00000000000000000000e-01) (3, 5, 5.00000000000000000000e-01) (3, 5, 5.00000000000000000000e-01) (3, 5, 5.00000000000000000000e-01) (3, 5, 5.00000000000000000000e-01) (3, 5, 5.00000000000000000000e-01) (3, 5, 5.00000000000000000000e-01) (0, 5, 0.00000000000000000000e+00) (10, 5, 5.00000000000000000000e-01) (0, 5, 0.00000000000000000000e+00) 
connections (connected_to_neuron, weight)=(0, 6.94359731674194335938e+00) (1, -2.47802257537841796875e+00) (2, -9.66861695051193237305e-02) (0, 1.69564914703369140625e+01) (1, -6.61395120620727539062e+00) (2, -6.67772293090820312500e-01) (0, -1.26130218505859375000e+01) (1, 8.99618053436279296875e+00) (2, 1.01141333580017089844e+00) (0, 6.83255195617675781250e+00) (1, -2.42046093940734863281e+00) (2, -8.96191447973251342773e-02) (0, 2.86770272254943847656e+00) (1, -9.07140195369720458984e-01) (2, -1.03945240378379821777e-01) (0, -1.26164379119873046875e+01) (1, 9.14687633514404296875e+00) (2, 9.66139256954193115234e-01) (0, 4.03368353843688964844e-01) (1, 1.94981217384338378906e-01) (2, -4.04995046555995941162e-02) (0, 6.89600896835327148438e+00) (1, -2.45967555046081542969e+00) (2, -1.09386608004570007324e-01) (0, 1.68709049224853515625e+01) (1, -6.59431743621826171875e+00) (2, -8.51308584213256835938e-01) (3, 1.53996205329895019531e+00) (4, 5.92660188674926757812e+00) (5, -5.70155668258666992188e+00) (6, 7.09890663623809814453e-01) (7, 4.84580516815185546875e-01) (8, -5.64182949066162109375e+00) (9, -1.92511398345232009888e-02) (10, 1.59938216209411621094e+00) (11, 5.93626689910888671875e+00) (12, -6.65628969669342041016e-01) 
