FANN_FLO_2.1
num_layers=3
learning_rate=0.700000
connection_rate=1.000000
network_type=0
learning_momentum=0.000000
training_algorithm=2
train_error_function=1
train_stop_function=0
cascade_output_change_fraction=0.010000
quickprop_decay=-0.000100
quickprop_mu=1.750000
rprop_increase_factor=1.200000
rprop_decrease_factor=0.500000
rprop_delta_min=0.000000
rprop_delta_max=50.000000
rprop_delta_zero=0.100000
cascade_output_stagnation_epochs=12
cascade_candidate_change_fraction=0.010000
cascade_candidate_stagnation_epochs=12
cascade_max_out_epochs=150
cascade_min_out_epochs=50
cascade_max_cand_epochs=150
cascade_min_cand_epochs=50
cascade_num_candidate_groups=2
bit_fail_limit=3.49999994039535522461e-01
cascade_candidate_limit=1.00000000000000000000e+03
cascade_weight_multiplier=4.00000005960464477539e-01
cascade_activation_functions_count=10
cascade_activation_functions=3 5 7 8 10 11 14 15 16 17 
cascade_activation_steepnesses_count=4
cascade_activation_steepnesses=2.50000000000000000000e-01 5.00000000000000000000e-01 7.50000000000000000000e-01 1.00000000000000000000e+00 
layer_sizes=3 10 2 
scale_included=0
neurons (num_inputs, activation_function, activation_steepness)=(0, 0, 0.00000000000000000000e+00) (0, 0, 0.00000000000000000000e+00) (0, 0, 0.00000000000000000000e+00) (3, 5, 5.00000000000000000000e-01) (3, 5, 5.00000000000000000000e-01) (3, 5, 5.00000000000000000000e-01) (3, 5, 5.00000000000000000000e-01) (3, 5, 5.00000000000000000000e-01) (3, 5, 5.00000000000000000000e-01) (3, 5, 5.00000000000000000000e-01) (3, 5, 5.00000000000000000000e-01) (3, 5, 5.00000000000000000000e-01) (0, 5, 0.00000000000000000000e+00) (10, 5, 5.00000000000000000000e-01) (0, 5, 0.00000000000000000000e+00) 
connections (connected_to_neuron, weight)=(0, -3.34175300598144531250e+01) (1, -1.07930450439453125000e+02) (2, 2.50889420509338378906e+00) (0, -2.60282592773437500000e+01) (1, -1.09129348754882812500e+02) (2, 2.29968810081481933594e+00) (0, -3.34314918518066406250e+01) (1, -1.05273857116699218750e+02) (2, 2.51122331619262695312e+00) (0, 8.46206283569335937500e+01) (1, -1.21340970993041992188e+01) (2, 2.06447347998619079590e-01) (0, -1.48305603027343750000e+03) (1, 7.29813232421875000000e+01) (2, 1.76805794239044189453e+00) (0, 1.48457458496093750000e+02) (1, -2.69471645355224609375e+01) (2, 4.05228704214096069336e-01) (0, -1.18091270446777343750e+02) (1, -3.30869964599609375000e+02) (2, -1.10380163192749023438e+01) (0, 1.48361801147460937500e+02) (1, -2.80263500213623046875e+01) (2, 4.11900490522384643555e-01) (0, -1.50000000000000000000e+03) (1, -1.15841384887695312500e+02) (2, 3.28932046890258789062e+00) (3, -4.78597259521484375000e+00) (4, -1.73091232776641845703e+00) (5, -2.99591636657714843750e+00) (6, 1.35664451122283935547e+00) (7, 8.34345531463623046875e+00) (8, 2.49959778785705566406e+00) (9, 8.86471176147460937500e+00) (10, 2.51128387451171875000e+00) (11, -4.35436630249023437500e+00) (12, 4.08492422103881835938e+00) 
