FANN_FLO_2.1
num_layers=3
learning_rate=0.700000
connection_rate=1.000000
network_type=0
learning_momentum=0.000000
training_algorithm=2
train_error_function=1
train_stop_function=0
cascade_output_change_fraction=0.010000
quickprop_decay=-0.000100
quickprop_mu=1.750000
rprop_increase_factor=1.200000
rprop_decrease_factor=0.500000
rprop_delta_min=0.000000
rprop_delta_max=50.000000
rprop_delta_zero=0.100000
cascade_output_stagnation_epochs=12
cascade_candidate_change_fraction=0.010000
cascade_candidate_stagnation_epochs=12
cascade_max_out_epochs=150
cascade_min_out_epochs=50
cascade_max_cand_epochs=150
cascade_min_cand_epochs=50
cascade_num_candidate_groups=2
bit_fail_limit=3.49999994039535522461e-01
cascade_candidate_limit=1.00000000000000000000e+03
cascade_weight_multiplier=4.00000005960464477539e-01
cascade_activation_functions_count=10
cascade_activation_functions=3 5 7 8 10 11 14 15 16 17 
cascade_activation_steepnesses_count=4
cascade_activation_steepnesses=2.50000000000000000000e-01 5.00000000000000000000e-01 7.50000000000000000000e-01 1.00000000000000000000e+00 
layer_sizes=5 10 2 
scale_included=0
neurons (num_inputs, activation_function, activation_steepness)=(0, 0, 0.00000000000000000000e+00) (0, 0, 0.00000000000000000000e+00) (0, 0, 0.00000000000000000000e+00) (0, 0, 0.00000000000000000000e+00) (0, 0, 0.00000000000000000000e+00) (5, 5, 5.00000000000000000000e-01) (5, 5, 5.00000000000000000000e-01) (5, 5, 5.00000000000000000000e-01) (5, 5, 5.00000000000000000000e-01) (5, 5, 5.00000000000000000000e-01) (5, 5, 5.00000000000000000000e-01) (5, 5, 5.00000000000000000000e-01) (5, 5, 5.00000000000000000000e-01) (5, 5, 5.00000000000000000000e-01) (0, 5, 0.00000000000000000000e+00) (10, 5, 5.00000000000000000000e-01) (0, 5, 0.00000000000000000000e+00) 
connections (connected_to_neuron, weight)=(0, -2.63939399719238281250e+01) (1, -3.28993463516235351562e+00) (2, 3.68582653999328613281e+00) (3, 1.21314229965209960938e+01) (4, 2.76056021451950073242e-01) (0, -6.36162567138671875000e+01) (1, -8.26609706878662109375e+00) (2, 8.76273155212402343750e+00) (3, 2.87930641174316406250e+01) (4, 3.33369165658950805664e-01) (0, -6.35207519531250000000e+01) (1, -8.28319072723388671875e+00) (2, 8.77080345153808593750e+00) (3, 2.88819389343261718750e+01) (4, 3.33840817213058471680e-01) (0, 1.52864046096801757812e+01) (1, 3.84396243095397949219e+00) (2, 2.84705877304077148438e-01) (3, -2.94690966606140136719e+00) (4, -5.40779531002044677734e-01) (0, 1.55757650732994079590e-01) (1, 8.66631746292114257812e-01) (2, -3.24557781219482421875e-01) (3, 5.41131086647510528564e-02) (4, 2.75666117668151855469e-01) (0, -6.36401443481445312500e+01) (1, -8.24195194244384765625e+00) (2, 8.70568466186523437500e+00) (3, 2.89574241638183593750e+01) (4, 3.27899247407913208008e-01) (0, -6.35515975952148437500e+01) (1, -8.20999240875244140625e+00) (2, 8.71504783630371093750e+00) (3, 2.89695777893066406250e+01) (4, 3.02607685327529907227e-01) (0, 1.52886400222778320312e+01) (1, 3.75795960426330566406e+00) (2, 3.39751482009887695312e-01) (3, -2.84127163887023925781e+00) (4, -5.10645091533660888672e-01) (0, -1.08001298904418945312e+01) (1, -2.49998617172241210938e+00) (2, 1.54375588893890380859e+00) (3, 5.03494405746459960938e+00) (4, 5.48647880554199218750e-01) (5, 5.70481491088867187500e+00) (6, 2.44894256591796875000e+01) (7, 2.44791164398193359375e+01) (8, -7.77461171150207519531e-01) (9, 1.12535536289215087891e-01) (10, 1.07171134948730468750e+01) (11, 1.07642812728881835938e+01) (12, -7.49936282634735107422e-01) (13, 4.93342429399490356445e-01) (14, 4.20332461595535278320e-01) 
