FANN_FLO_2.1
num_layers=3
learning_rate=0.700000
connection_rate=1.000000
network_type=0
learning_momentum=0.000000
training_algorithm=2
train_error_function=1
train_stop_function=0
cascade_output_change_fraction=0.010000
quickprop_decay=-0.000100
quickprop_mu=1.750000
rprop_increase_factor=1.200000
rprop_decrease_factor=0.500000
rprop_delta_min=0.000000
rprop_delta_max=50.000000
rprop_delta_zero=0.100000
cascade_output_stagnation_epochs=12
cascade_candidate_change_fraction=0.010000
cascade_candidate_stagnation_epochs=12
cascade_max_out_epochs=150
cascade_min_out_epochs=50
cascade_max_cand_epochs=150
cascade_min_cand_epochs=50
cascade_num_candidate_groups=2
bit_fail_limit=3.49999994039535522461e-01
cascade_candidate_limit=1.00000000000000000000e+03
cascade_weight_multiplier=4.00000005960464477539e-01
cascade_activation_functions_count=10
cascade_activation_functions=3 5 7 8 10 11 14 15 16 17 
cascade_activation_steepnesses_count=4
cascade_activation_steepnesses=2.50000000000000000000e-01 5.00000000000000000000e-01 7.50000000000000000000e-01 1.00000000000000000000e+00 
layer_sizes=4 10 2 
scale_included=0
neurons (num_inputs, activation_function, activation_steepness)=(0, 0, 0.00000000000000000000e+00) (0, 0, 0.00000000000000000000e+00) (0, 0, 0.00000000000000000000e+00) (0, 0, 0.00000000000000000000e+00) (4, 5, 5.00000000000000000000e-01) (4, 5, 5.00000000000000000000e-01) (4, 5, 5.00000000000000000000e-01) (4, 5, 5.00000000000000000000e-01) (4, 5, 5.00000000000000000000e-01) (4, 5, 5.00000000000000000000e-01) (4, 5, 5.00000000000000000000e-01) (4, 5, 5.00000000000000000000e-01) (4, 5, 5.00000000000000000000e-01) (0, 5, 0.00000000000000000000e+00) (10, 5, 5.00000000000000000000e-01) (0, 5, 0.00000000000000000000e+00) 
connections (connected_to_neuron, weight)=(0, -2.07288608551025390625e+01) (1, -6.86471509933471679688e+00) (2, 1.29596948623657226562e+00) (3, 1.94010972976684570312e+00) (0, -1.53882551193237304688e+01) (1, 1.66731510162353515625e+01) (2, 8.73085498809814453125e-01) (3, -3.07463735342025756836e-01) (0, -3.83541198730468750000e+02) (1, -3.59656555175781250000e+02) (2, 9.98693585395812988281e-01) (3, 1.34935340881347656250e+01) (0, 1.31692474365234375000e+02) (1, -6.47639036178588867188e-02) (2, 6.19937324523925781250e+00) (3, 1.96411287784576416016e+00) (0, -6.89405975341796875000e+01) (1, -7.83692598342895507812e+00) (2, 6.00228462219238281250e+01) (3, -7.40639626979827880859e-01) (0, -1.98369247436523437500e+02) (1, 1.75899688720703125000e+02) (2, -5.90453529357910156250e+01) (3, 6.40640354156494140625e+00) (0, -1.50000000000000000000e+03) (1, -2.13025314331054687500e+02) (2, -9.66052436828613281250e+00) (3, 3.18908429145812988281e+00) (0, 2.56617675781250000000e+02) (1, 1.41669921875000000000e+02) (2, 5.22049987792968750000e+02) (3, 4.04692173004150390625e+00) (0, 9.31472900390625000000e+02) (1, 1.63790191650390625000e+02) (2, -1.54524087905883789062e+01) (3, 3.50146317481994628906e+00) (4, -3.47009158134460449219e+00) (5, 1.33312177658081054688e+01) (6, -5.70814967155456542969e-01) (7, -5.27817106246948242188e+00) (8, 2.20574531555175781250e+01) (9, 1.06285629272460937500e+01) (10, -3.88716554641723632812e+00) (11, -7.73257017135620117188e+00) (12, -6.45851755142211914062e+00) (13, -3.41227382421493530273e-01) 
